digraph Tree {
node [shape=box, style="filled, rounded", color="black", fontname="helvetica"] ;
edge [fontname="helvetica"] ;
0 [label="petal width (cm) <= 0.8\ngini = 0.67\nsamples = 101\nvalue = [52, 49, 49]\nclass = setosa", fillcolor="#fefbf9"] ;
1 [label="gini = 0.0\nsamples = 36\nvalue = [52, 0, 0]\nclass = setosa", fillcolor="#e58139"] ;
0 -> 1 [labeldistance=2.5, labelangle=45, headlabel="True"] ;
2 [label="petal length (cm) <= 5.05\ngini = 0.5\nsamples = 65\nvalue = [0, 49, 49]\nclass = versicolor", fillcolor="#ffffff"] ;
0 -> 2 [labeldistance=2.5, labelangle=-45, headlabel="False"] ;
3 [label="petal width (cm) <= 1.65\ngini = 0.2\nsamples = 37\nvalue = [0, 48, 6]\nclass = versicolor", fillcolor="#52e891"] ;
2 -> 3 ;
4 [label="gini = 0.0\nsamples = 30\nvalue = [0, 45, 0]\nclass = versicolor", fillcolor="#39e581"] ;
3 -> 4 ;
5 [label="sepal width (cm) <= 3.1\ngini = 0.44\nsamples = 7\nvalue = [0, 3, 6]\nclass = virginica", fillcolor="#c09cf2"] ;
3 -> 5 ;
6 [label="petal length (cm) <= 4.95\ngini = 0.24\nsamples = 6\nvalue = [0, 1, 6]\nclass = virginica", fillcolor="#965ae9"] ;
5 -> 6 ;
7 [label="gini = 0.0\nsamples = 4\nvalue = [0, 0, 5]\nclass = virginica", fillcolor="#8139e5"] ;
6 -> 7 ;
8 [label="sepal length (cm) <= 6.5\ngini = 0.5\nsamples = 2\nvalue = [0, 1, 1]\nclass = versicolor", fillcolor="#ffffff"] ;
6 -> 8 ;
9 [label="gini = 0.0\nsamples = 1\nvalue = [0, 0, 1]\nclass = virginica", fillcolor="#8139e5"] ;
8 -> 9 ;
10 [label="gini = 0.0\nsamples = 1\nvalue = [0, 1, 0]\nclass = versicolor", fillcolor="#39e581"] ;
8 -> 10 ;
11 [label="gini = 0.0\nsamples = 1\nvalue = [0, 2, 0]\nclass = versicolor", fillcolor="#39e581"] ;
5 -> 11 ;
12 [label="petal width (cm) <= 1.7\ngini = 0.04\nsamples = 28\nvalue = [0, 1, 43]\nclass = virginica", fillcolor="#843ee6"] ;
2 -> 12 ;
13 [label="petal length (cm) <= 5.45\ngini = 0.5\nsamples = 2\nvalue = [0, 1, 1]\nclass = versicolor", fillcolor="#ffffff"] ;
12 -> 13 ;
14 [label="gini = 0.0\nsamples = 1\nvalue = [0, 1, 0]\nclass = versicolor", fillcolor="#39e581"] ;
13 -> 14 ;
15 [label="gini = 0.0\nsamples = 1\nvalue = [0, 0, 1]\nclass = virginica", fillcolor="#8139e5"] ;
13 -> 15 ;
16 [label="gini = 0.0\nsamples = 26\nvalue = [0, 0, 42]\nclass = virginica", fillcolor="#8139e5"] ;
12 -> 16 ;
}